digraph Tree {
node [shape=box] ;
0 [label="Petal.Length <= 2.6\nentropy = 1.585\nsamples = 112\nvalue = [37, 38, 37]"] ;
1 [label="entropy = 0.0\nsamples = 37\nvalue = [37, 0, 0]"] ;
0 -> 1 [labeldistance=2.5, labelangle=45, headlabel="True"] ;
2 [label="Petal.Width <= 1.65\nentropy = 1.0\nsamples = 75\nvalue = [0, 38, 37]"] ;
0 -> 2 [labeldistance=2.5, labelangle=-45, headlabel="False"] ;
3 [label="Petal.Length <= 4.95\nentropy = 0.384\nsamples = 40\nvalue = [0, 37, 3]"] ;
2 -> 3 ;
4 [label="entropy = 0.0\nsamples = 36\nvalue = [0, 36, 0]"] ;
3 -> 4 ;
5 [label="entropy = 0.811\nsamples = 4\nvalue = [0, 1, 3]"] ;
3 -> 5 ;
6 [label="Petal.Length <= 4.85\nentropy = 0.187\nsamples = 35\nvalue = [0, 1, 34]"] ;
2 -> 6 ;
7 [label="entropy = 0.918\nsamples = 3\nvalue = [0, 1, 2]"] ;
6 -> 7 ;
8 [label="entropy = 0.0\nsamples = 32\nvalue = [0, 0, 32]"] ;
6 -> 8 ;
}